[
  {
    "class_name": "Sequential",
    "config": {
      "name": "sequential_37",
      "layers": [
        {
          "class_name": "Dense",
          "config": {
            "units": 4,
            "activation": "relu",
            "use_bias": true
          }
        },
        {
          "class_name": "Dense",
          "config": {
            "units": 3,
            "activation": "softmax",
            "use_bias": true
          }
        }
      ]
    },
    "weights": [
      {
        "values": [
          [
            0.19852842390537262,
            0.9126726388931274,
            -0.47354233264923096,
            0.5596415996551514
          ],
          [
            0.05932137742638588,
            0.5018115639686584,
            0.12989161908626556,
            -0.020840778946876526
          ],
          [
            0.20320700109004974,
            0.4409838318824768,
            0.3985449969768524,
            0.10111092776060104
          ],
          [
            -0.011984050273895264,
            -0.6145929098129272,
            -0.1904490441083908,
            -0.13002067804336548
          ]
        ],
        "shape": [
          4,
          4
        ]
      },
      {
        "values": [
          -0.04716803878545761,
          -0.018483072519302368,
          0.04286227002739906,
          -0.06531576812267303
        ],
        "shape": [
          4
        ]
      },
      {
        "values": [
          [
            -0.20665974915027618,
            0.6028855443000793,
            0.7702890038490295
          ],
          [
            -0.24790434539318085,
            0.4993512034416199,
            0.18070366978645325
          ],
          [
            -0.4012141525745392,
            -0.966199517250061,
            -0.5732710957527161
          ],
          [
            -0.2471744418144226,
            0.6124609112739563,
            -0.4295162856578827
          ]
        ],
        "shape": [
          4,
          3
        ]
      },
      {
        "values": [
          -0.014125021174550056,
          -0.144521564245224,
          -0.010900839231908321
        ],
        "shape": [
          3
        ]
      }
    ]
  },
  {
    "class_name": "Sequential",
    "config": {
      "name": "sequential_64",
      "layers": [
        {
          "class_name": "Dense",
          "config": {
            "units": 4,
            "activation": "relu",
            "use_bias": true
          }
        },
        {
          "class_name": "Dense",
          "config": {
            "units": 3,
            "activation": "softmax",
            "use_bias": true
          }
        }
      ]
    },
    "weights": [
      {
        "values": [
          [
            0.1731327474117279,
            0.9814596772193909,
            -0.511590838432312,
            0.5662678480148315
          ],
          [
            0.05932137742638588,
            0.49851033091545105,
            0.16725100576877594,
            -0.01652899943292141
          ],
          [
            0.24673666059970856,
            0.4409838318824768,
            0.3903180658817291,
            0.10111092776060104
          ],
          [
            0.06370387971401215,
            -0.6136321425437927,
            -0.22115644812583923,
            -0.13002067804336548
          ]
        ],
        "shape": [
          4,
          4
        ]
      },
      {
        "values": [
          -0.04716803878545761,
          0.024574145674705505,
          -0.00434023467823863,
          -0.0932430848479271
        ],
        "shape": [
          4
        ]
      },
      {
        "values": [
          [
            -0.25028568506240845,
            0.6361324787139893,
            0.7322574257850647
          ],
          [
            -0.24790434539318085,
            0.4993512034416199,
            0.1574963629245758
          ],
          [
            -0.4482470154762268,
            -0.962162971496582,
            -0.5732710957527161
          ],
          [
            -0.2471744418144226,
            0.6124609112739563,
            -0.4278162717819214
          ]
        ],
        "shape": [
          4,
          3
        ]
      },
      {
        "values": [
          0.01433764211833477,
          -0.144521564245224,
          -0.010900839231908321
        ],
        "shape": [
          3
        ]
      }
    ]
  },
  {
    "class_name": "Sequential",
    "config": {
      "name": "sequential_87",
      "layers": [
        {
          "class_name": "Dense",
          "config": {
            "units": 4,
            "activation": "relu",
            "use_bias": true
          }
        },
        {
          "class_name": "Dense",
          "config": {
            "units": 3,
            "activation": "softmax",
            "use_bias": true
          }
        }
      ]
    },
    "weights": [
      {
        "values": [
          [
            0.23698070645332336,
            0.9126726388931274,
            -0.47354233264923096,
            0.5596415996551514
          ],
          [
            0.07399210333824158,
            0.5018115639686584,
            0.12989161908626556,
            -0.020840778946876526
          ],
          [
            0.20320700109004974,
            0.4409838318824768,
            0.3985449969768524,
            0.0958583876490593
          ],
          [
            -0.011984050273895264,
            -0.6145929098129272,
            -0.19506072998046875,
            -0.11171382665634155
          ]
        ],
        "shape": [
          4,
          4
        ]
      },
      {
        "values": [
          -0.04716803878545761,
          -0.018483072519302368,
          0.04286227002739906,
          -0.06531576812267303
        ],
        "shape": [
          4
        ]
      },
      {
        "values": [
          [
            -0.20665974915027618,
            0.6028855443000793,
            0.7702890038490295
          ],
          [
            -0.28042617440223694,
            0.4993512034416199,
            0.18070366978645325
          ],
          [
            -0.4012141525745392,
            -0.966199517250061,
            -0.5732710957527161
          ],
          [
            -0.2471744418144226,
            0.6124609112739563,
            -0.4295162856578827
          ]
        ],
        "shape": [
          4,
          3
        ]
      },
      {
        "values": [
          -0.014125021174550056,
          -0.144521564245224,
          -0.010900839231908321
        ],
        "shape": [
          3
        ]
      }
    ]
  },
  {
    "class_name": "Sequential",
    "config": {
      "name": "sequential_89",
      "layers": [
        {
          "class_name": "Dense",
          "config": {
            "units": 4,
            "activation": "relu",
            "use_bias": true
          }
        },
        {
          "class_name": "Dense",
          "config": {
            "units": 3,
            "activation": "softmax",
            "use_bias": true
          }
        }
      ]
    },
    "weights": [
      {
        "values": [
          [
            0.14057089388370514,
            0.9344775676727295,
            -0.47354233264923096,
            0.5874863862991333
          ],
          [
            0.05932137742638588,
            0.525213360786438,
            0.12989161908626556,
            -0.009539260528981686
          ],
          [
            0.20320700109004974,
            0.4409838318824768,
            0.3808613419532776,
            0.0958583876490593
          ],
          [
            -0.011984050273895264,
            -0.6145929098129272,
            -0.1904490441083908,
            -0.13002067804336548
          ]
        ],
        "shape": [
          4,
          4
        ]
      },
      {
        "values": [
          -0.04716803878545761,
          -0.05955447256565094,
          0.04504252225160599,
          -0.06531576812267303
        ],
        "shape": [
          4
        ]
      },
      {
        "values": [
          [
            -0.20665974915027618,
            0.6028855443000793,
            0.7920677065849304
          ],
          [
            -0.24790434539318085,
            0.4993512034416199,
            0.18070366978645325
          ],
          [
            -0.43378540873527527,
            -1.0811980962753296,
            -0.608392059803009
          ],
          [
            -0.21323487162590027,
            0.6033750772476196,
            -0.4295162856578827
          ]
        ],
        "shape": [
          4,
          3
        ]
      },
      {
        "values": [
          -0.019521517679095268,
          -0.144521564245224,
          -0.010900839231908321
        ],
        "shape": [
          3
        ]
      }
    ]
  },
  {
    "class_name": "Sequential",
    "config": {
      "name": "sequential_97",
      "layers": [
        {
          "class_name": "Dense",
          "config": {
            "units": 4,
            "activation": "relu",
            "use_bias": true
          }
        },
        {
          "class_name": "Dense",
          "config": {
            "units": 3,
            "activation": "softmax",
            "use_bias": true
          }
        }
      ]
    },
    "weights": [
      {
        "values": [
          [
            0.1731327474117279,
            0.9814596772193909,
            -0.511590838432312,
            0.5662678480148315
          ],
          [
            0.05932137742638588,
            0.49851033091545105,
            0.1778842955827713,
            -0.01652899943292141
          ],
          [
            0.24673666059970856,
            0.4409838318824768,
            0.3667410910129547,
            0.10111092776060104
          ],
          [
            0.06370387971401215,
            -0.6381347179412842,
            -0.1904490441083908,
            -0.13002067804336548
          ]
        ],
        "shape": [
          4,
          4
        ]
      },
      {
        "values": [
          -0.04716803878545761,
          0.024574145674705505,
          0.03387203812599182,
          -0.06531576812267303
        ],
        "shape": [
          4
        ]
      },
      {
        "values": [
          [
            -0.291969358921051,
            0.6361324787139893,
            0.7322574257850647
          ],
          [
            -0.24790434539318085,
            0.4993512034416199,
            0.19626133143901825
          ],
          [
            -0.4012141525745392,
            -0.966199517250061,
            -0.5288274884223938
          ],
          [
            -0.2471744418144226,
            0.6124609112739563,
            -0.4295162856578827
          ]
        ],
        "shape": [
          4,
          3
        ]
      },
      {
        "values": [
          0.01433764211833477,
          -0.144521564245224,
          -0.010900839231908321
        ],
        "shape": [
          3
        ]
      }
    ]
  },
  {
    "class_name": "Sequential",
    "config": {
      "name": "sequential_98",
      "layers": [
        {
          "class_name": "Dense",
          "config": {
            "units": 4,
            "activation": "relu",
            "use_bias": true
          }
        },
        {
          "class_name": "Dense",
          "config": {
            "units": 3,
            "activation": "softmax",
            "use_bias": true
          }
        }
      ]
    },
    "weights": [
      {
        "values": [
          [
            0.23698070645332336,
            0.9126726388931274,
            -0.4587528109550476,
            0.5596415996551514
          ],
          [
            0.11688420176506042,
            0.520698070526123,
            0.164469376206398,
            -0.020840778946876526
          ],
          [
            0.20320700109004974,
            0.4409838318824768,
            0.36608025431632996,
            0.0958583876490593
          ],
          [
            -0.011984050273895264,
            -0.6145929098129272,
            -0.19506072998046875,
            -0.11171382665634155
          ]
        ],
        "shape": [
          4,
          4
        ]
      },
      {
        "values": [
          -0.04716803878545761,
          -0.018483072519302368,
          0.04286227002739906,
          -0.07045046240091324
        ],
        "shape": [
          4
        ]
      },
      {
        "values": [
          [
            -0.20665974915027618,
            0.6028855443000793,
            0.7920677065849304
          ],
          [
            -0.24790434539318085,
            0.4756735563278198,
            0.18070366978645325
          ],
          [
            -0.4173579812049866,
            -1.0811980962753296,
            -0.608392059803009
          ],
          [
            -0.21323487162590027,
            0.6124609112739563,
            -0.4211995601654053
          ]
        ],
        "shape": [
          4,
          3
        ]
      },
      {
        "values": [
          -0.0199442096054554,
          -0.144521564245224,
          -0.010900839231908321
        ],
        "shape": [
          3
        ]
      }
    ]
  },
  {
    "class_name": "Sequential",
    "config": {
      "name": "sequential_99",
      "layers": [
        {
          "class_name": "Dense",
          "config": {
            "units": 4,
            "activation": "relu",
            "use_bias": true
          }
        },
        {
          "class_name": "Dense",
          "config": {
            "units": 3,
            "activation": "softmax",
            "use_bias": true
          }
        }
      ]
    },
    "weights": [
      {
        "values": [
          [
            0.19852842390537262,
            0.9126726388931274,
            -0.47354233264923096,
            0.5596415996551514
          ],
          [
            0.05932137742638588,
            0.5416396856307983,
            0.12989161908626556,
            -0.020840778946876526
          ],
          [
            0.20320700109004974,
            0.4409838318824768,
            0.3985449969768524,
            0.12501221895217896
          ],
          [
            -0.011984050273895264,
            -0.6077947616577148,
            -0.15415582060813904,
            -0.11171382665634155
          ]
        ],
        "shape": [
          4,
          4
        ]
      },
      {
        "values": [
          -0.04716803878545761,
          -0.018483072519302368,
          0.04286227002739906,
          -0.06531576812267303
        ],
        "shape": [
          4
        ]
      },
      {
        "values": [
          [
            -0.20665974915027618,
            0.5642445683479309,
            0.7702890038490295
          ],
          [
            -0.28042617440223694,
            0.5466598272323608,
            0.18070366978645325
          ],
          [
            -0.40275293588638306,
            -0.9885603785514832,
            -0.5732710957527161
          ],
          [
            -0.2471744418144226,
            0.601099967956543,
            -0.4686301648616791
          ]
        ],
        "shape": [
          4,
          3
        ]
      },
      {
        "values": [
          -0.014125021174550056,
          -0.144521564245224,
          -0.010900839231908321
        ],
        "shape": [
          3
        ]
      }
    ]
  },
  {
    "class_name": "Sequential",
    "config": {
      "name": "sequential_100",
      "layers": [
        {
          "class_name": "Dense",
          "config": {
            "units": 4,
            "activation": "relu",
            "use_bias": true
          }
        },
        {
          "class_name": "Dense",
          "config": {
            "units": 3,
            "activation": "softmax",
            "use_bias": true
          }
        }
      ]
    },
    "weights": [
      {
        "values": [
          [
            0.2442893087863922,
            0.928142249584198,
            -0.47354233264923096,
            0.5729184150695801
          ],
          [
            0.07399210333824158,
            0.5018115639686584,
            0.12989161908626556,
            -0.020840778946876526
          ],
          [
            0.20320700109004974,
            0.4409838318824768,
            0.3985449969768524,
            0.10111092776060104
          ],
          [
            -0.0594991035759449,
            -0.6145929098129272,
            -0.1904490441083908,
            -0.16425158083438873
          ]
        ],
        "shape": [
          4,
          4
        ]
      },
      {
        "values": [
          -0.04716803878545761,
          -0.03734123334288597,
          0.08882071077823639,
          -0.06531576812267303
        ],
        "shape": [
          4
        ]
      },
      {
        "values": [
          [
            -0.20665974915027618,
            0.6296679377555847,
            0.7702890038490295
          ],
          [
            -0.27490636706352234,
            0.4655396640300751,
            0.1470773071050644
          ],
          [
            -0.4012141525745392,
            -0.966199517250061,
            -0.5732710957527161
          ],
          [
            -0.2471744418144226,
            0.5645751357078552,
            -0.4295162856578827
          ]
        ],
        "shape": [
          4,
          3
        ]
      },
      {
        "values": [
          -0.014125021174550056,
          -0.144521564245224,
          -0.010900839231908321
        ],
        "shape": [
          3
        ]
      }
    ]
  },
  {
    "class_name": "Sequential",
    "config": {
      "name": "sequential_101",
      "layers": [
        {
          "class_name": "Dense",
          "config": {
            "units": 4,
            "activation": "relu",
            "use_bias": true
          }
        },
        {
          "class_name": "Dense",
          "config": {
            "units": 3,
            "activation": "softmax",
            "use_bias": true
          }
        }
      ]
    },
    "weights": [
      {
        "values": [
          [
            0.2636784315109253,
            0.9120051264762878,
            -0.44776102900505066,
            0.5282099843025208
          ],
          [
            0.07399210333824158,
            0.5018115639686584,
            0.11930695176124573,
            -0.013143330812454224
          ],
          [
            0.20320700109004974,
            0.4409838318824768,
            0.3985449969768524,
            0.0958583876490593
          ],
          [
            -0.011984050273895264,
            -0.6087591648101807,
            -0.19506072998046875,
            -0.10940306633710861
          ]
        ],
        "shape": [
          4,
          4
        ]
      },
      {
        "values": [
          -0.05520892143249512,
          -0.05955447256565094,
          0.07878899574279785,
          -0.06531576812267303
        ],
        "shape": [
          4
        ]
      },
      {
        "values": [
          [
            -0.16468919813632965,
            0.6028855443000793,
            0.7702890038490295
          ],
          [
            -0.29153576493263245,
            0.4993512034416199,
            0.18070366978645325
          ],
          [
            -0.4012141525745392,
            -0.966199517250061,
            -0.5732710957527161
          ],
          [
            -0.2471744418144226,
            0.6124609112739563,
            -0.4295162856578827
          ]
        ],
        "shape": [
          4,
          3
        ]
      },
      {
        "values": [
          -0.019521517679095268,
          -0.11344200372695923,
          -0.010900839231908321
        ],
        "shape": [
          3
        ]
      }
    ]
  },
  {
    "class_name": "Sequential",
    "config": {
      "name": "sequential_102",
      "layers": [
        {
          "class_name": "Dense",
          "config": {
            "units": 4,
            "activation": "relu",
            "use_bias": true
          }
        },
        {
          "class_name": "Dense",
          "config": {
            "units": 3,
            "activation": "softmax",
            "use_bias": true
          }
        }
      ]
    },
    "weights": [
      {
        "values": [
          [
            0.14057089388370514,
            0.9344775676727295,
            -0.47354233264923096,
            0.5874863862991333
          ],
          [
            0.05932137742638588,
            0.525213360786438,
            0.09361401945352554,
            -0.009539260528981686
          ],
          [
            0.20320700109004974,
            0.4409838318824768,
            0.35096341371536255,
            0.0958583876490593
          ],
          [
            -0.011984050273895264,
            -0.6145929098129272,
            -0.1904490441083908,
            -0.13002067804336548
          ]
        ],
        "shape": [
          4,
          4
        ]
      },
      {
        "values": [
          -0.0399206168949604,
          -0.018483072519302368,
          0.06822635233402252,
          -0.06531576812267303
        ],
        "shape": [
          4
        ]
      },
      {
        "values": [
          [
            -0.20665974915027618,
            0.6028855443000793,
            0.7920677065849304
          ],
          [
            -0.21096771955490112,
            0.4993512034416199,
            0.18070366978645325
          ],
          [
            -0.43378540873527527,
            -1.0811980962753296,
            -0.6186648607254028
          ],
          [
            -0.2471744418144226,
            0.6124300360679626,
            -0.4295162856578827
          ]
        ],
        "shape": [
          4,
          3
        ]
      },
      {
        "values": [
          -0.019521517679095268,
          -0.144521564245224,
          -0.010900839231908321
        ],
        "shape": [
          3
        ]
      }
    ]
  },
  {
    "class_name": "Sequential",
    "config": {
      "name": "sequential_95",
      "layers": [
        {
          "class_name": "Dense",
          "config": {
            "units": 4,
            "activation": "relu",
            "use_bias": true
          }
        },
        {
          "class_name": "Dense",
          "config": {
            "units": 3,
            "activation": "softmax",
            "use_bias": true
          }
        }
      ]
    },
    "weights": [
      {
        "values": [
          [
            0.23698070645332336,
            0.8801854848861694,
            -0.48716410994529724,
            0.5596415996551514
          ],
          [
            0.07399210333824158,
            0.5018115639686584,
            0.12989161908626556,
            -0.01883581094443798
          ],
          [
            0.20320700109004974,
            0.4409838318824768,
            0.3985449969768524,
            0.11395260691642761
          ],
          [
            -0.011984050273895264,
            -0.6145929098129272,
            -0.19506072998046875,
            -0.11171382665634155
          ]
        ],
        "shape": [
          4,
          4
        ]
      },
      {
        "values": [
          -0.03858071193099022,
          -0.018483072519302368,
          0.04286227002739906,
          -0.06531576812267303
        ],
        "shape": [
          4
        ]
      },
      {
        "values": [
          [
            -0.1674378216266632,
            0.6028855443000793,
            0.7702890038490295
          ],
          [
            -0.28042617440223694,
            0.4993512034416199,
            0.18070366978645325
          ],
          [
            -0.4012141525745392,
            -0.966199517250061,
            -0.5732710957527161
          ],
          [
            -0.23404979705810547,
            0.6124609112739563,
            -0.45570269227027893
          ]
        ],
        "shape": [
          4,
          3
        ]
      },
      {
        "values": [
          -0.014125021174550056,
          -0.1023147702217102,
          -0.010900839231908321
        ],
        "shape": [
          3
        ]
      }
    ]
  },
  {
    "class_name": "Sequential",
    "config": {
      "name": "sequential_93",
      "layers": [
        {
          "class_name": "Dense",
          "config": {
            "units": 4,
            "activation": "relu",
            "use_bias": true
          }
        },
        {
          "class_name": "Dense",
          "config": {
            "units": 3,
            "activation": "softmax",
            "use_bias": true
          }
        }
      ]
    },
    "weights": [
      {
        "values": [
          [
            0.19852842390537262,
            0.9126726388931274,
            -0.4573639929294586,
            0.5596415996551514
          ],
          [
            0.039701491594314575,
            0.5018115639686584,
            0.12989161908626556,
            -0.020840778946876526
          ],
          [
            0.20320700109004974,
            0.4409838318824768,
            0.3985449969768524,
            0.10111092776060104
          ],
          [
            -0.011984050273895264,
            -0.5850363373756409,
            -0.2098141461610794,
            -0.13002067804336548
          ]
        ],
        "shape": [
          4,
          4
        ]
      },
      {
        "values": [
          -0.04716803878545761,
          -0.018483072519302368,
          0.04286227002739906,
          -0.06531576812267303
        ],
        "shape": [
          4
        ]
      },
      {
        "values": [
          [
            -0.24446740746498108,
            0.6028855443000793,
            0.7702890038490295
          ],
          [
            -0.24447640776634216,
            0.48461681604385376,
            0.18070366978645325
          ],
          [
            -0.4012141525745392,
            -0.966199517250061,
            -0.5738009214401245
          ],
          [
            -0.2471744418144226,
            0.5995471477508545,
            -0.4295162856578827
          ]
        ],
        "shape": [
          4,
          3
        ]
      },
      {
        "values": [
          -0.0032420260831713676,
          -0.17264078557491302,
          -0.010900839231908321
        ],
        "shape": [
          3
        ]
      }
    ]
  }
]