[
  {
    "class_name": "Sequential",
    "config": {
      "name": "sequential_64",
      "layers": [
        {
          "class_name": "Dense",
          "config": {
            "units": 4,
            "activation": "relu",
            "use_bias": true
          }
        },
        {
          "class_name": "Dense",
          "config": {
            "units": 3,
            "activation": "softmax",
            "use_bias": true
          }
        }
      ]
    },
    "weights": [
      {
        "values": [
          [
            0.1731327474117279,
            0.9814596772193909,
            -0.511590838432312,
            0.5662678480148315
          ],
          [
            0.05932137742638588,
            0.49851033091545105,
            0.16725100576877594,
            -0.01652899943292141
          ],
          [
            0.24673666059970856,
            0.4409838318824768,
            0.3903180658817291,
            0.10111092776060104
          ],
          [
            0.06370387971401215,
            -0.6136321425437927,
            -0.22115644812583923,
            -0.13002067804336548
          ]
        ],
        "shape": [
          4,
          4
        ]
      },
      {
        "values": [
          -0.04716803878545761,
          0.024574145674705505,
          -0.00434023467823863,
          -0.0932430848479271
        ],
        "shape": [
          4
        ]
      },
      {
        "values": [
          [
            -0.25028568506240845,
            0.6361324787139893,
            0.7322574257850647
          ],
          [
            -0.24790434539318085,
            0.4993512034416199,
            0.1574963629245758
          ],
          [
            -0.4482470154762268,
            -0.962162971496582,
            -0.5732710957527161
          ],
          [
            -0.2471744418144226,
            0.6124609112739563,
            -0.4278162717819214
          ]
        ],
        "shape": [
          4,
          3
        ]
      },
      {
        "values": [
          0.01433764211833477,
          -0.144521564245224,
          -0.010900839231908321
        ],
        "shape": [
          3
        ]
      }
    ]
  },
  {
    "class_name": "Sequential",
    "config": {
      "name": "sequential_74",
      "layers": [
        {
          "class_name": "Dense",
          "config": {
            "units": 4,
            "activation": "relu",
            "use_bias": true
          }
        },
        {
          "class_name": "Dense",
          "config": {
            "units": 3,
            "activation": "softmax",
            "use_bias": true
          }
        }
      ]
    },
    "weights": [
      {
        "values": [
          [
            0.14057089388370514,
            0.9344775676727295,
            -0.47354233264923096,
            0.5662678480148315
          ],
          [
            0.05932137742638588,
            0.525213360786438,
            0.12989161908626556,
            -0.020840778946876526
          ],
          [
            0.20320700109004974,
            0.4409838318824768,
            0.3808613419532776,
            0.0958583876490593
          ],
          [
            -0.011984050273895264,
            -0.6145929098129272,
            -0.1904490441083908,
            -0.13002067804336548
          ]
        ],
        "shape": [
          4,
          4
        ]
      },
      {
        "values": [
          -0.04716803878545761,
          -0.029534561559557915,
          0.04504252225160599,
          -0.06531576812267303
        ],
        "shape": [
          4
        ]
      },
      {
        "values": [
          [
            -0.20665974915027618,
            0.6028855443000793,
            0.7702890038490295
          ],
          [
            -0.24683065712451935,
            0.47727036476135254,
            0.18070366978645325
          ],
          [
            -0.38981735706329346,
            -1.0107675790786743,
            -0.6018372178077698
          ],
          [
            -0.2471744418144226,
            0.6124609112739563,
            -0.4295162856578827
          ]
        ],
        "shape": [
          4,
          3
        ]
      },
      {
        "values": [
          0.009996513836085796,
          -0.144521564245224,
          -0.010900839231908321
        ],
        "shape": [
          3
        ]
      }
    ]
  },
  {
    "class_name": "Sequential",
    "config": {
      "name": "sequential_37",
      "layers": [
        {
          "class_name": "Dense",
          "config": {
            "units": 4,
            "activation": "relu",
            "use_bias": true
          }
        },
        {
          "class_name": "Dense",
          "config": {
            "units": 3,
            "activation": "softmax",
            "use_bias": true
          }
        }
      ]
    },
    "weights": [
      {
        "values": [
          [
            0.19852842390537262,
            0.9126726388931274,
            -0.47354233264923096,
            0.5596415996551514
          ],
          [
            0.05932137742638588,
            0.5018115639686584,
            0.12989161908626556,
            -0.020840778946876526
          ],
          [
            0.20320700109004974,
            0.4409838318824768,
            0.3985449969768524,
            0.10111092776060104
          ],
          [
            -0.011984050273895264,
            -0.6145929098129272,
            -0.1904490441083908,
            -0.13002067804336548
          ]
        ],
        "shape": [
          4,
          4
        ]
      },
      {
        "values": [
          -0.04716803878545761,
          -0.018483072519302368,
          0.04286227002739906,
          -0.06531576812267303
        ],
        "shape": [
          4
        ]
      },
      {
        "values": [
          [
            -0.20665974915027618,
            0.6028855443000793,
            0.7702890038490295
          ],
          [
            -0.24790434539318085,
            0.4993512034416199,
            0.18070366978645325
          ],
          [
            -0.4012141525745392,
            -0.966199517250061,
            -0.5732710957527161
          ],
          [
            -0.2471744418144226,
            0.6124609112739563,
            -0.4295162856578827
          ]
        ],
        "shape": [
          4,
          3
        ]
      },
      {
        "values": [
          -0.014125021174550056,
          -0.144521564245224,
          -0.010900839231908321
        ],
        "shape": [
          3
        ]
      }
    ]
  },
  {
    "class_name": "Sequential",
    "config": {
      "name": "sequential_58",
      "layers": [
        {
          "class_name": "Dense",
          "config": {
            "units": 4,
            "activation": "relu",
            "use_bias": true
          }
        },
        {
          "class_name": "Dense",
          "config": {
            "units": 3,
            "activation": "softmax",
            "use_bias": true
          }
        }
      ]
    },
    "weights": [
      {
        "values": [
          [
            0.21941699087619781,
            0.9476828575134277,
            -0.47354233264923096,
            0.5596415996551514
          ],
          [
            0.05932137742638588,
            0.5384299159049988,
            0.1400095820426941,
            -0.020840778946876526
          ],
          [
            0.20320700109004974,
            0.4909045398235321,
            0.3985449969768524,
            0.136198028922081
          ],
          [
            0.01967325434088707,
            -0.6145929098129272,
            -0.15870411694049835,
            -0.13002067804336548
          ]
        ],
        "shape": [
          4,
          4
        ]
      },
      {
        "values": [
          -0.04716803878545761,
          -0.05828752741217613,
          0.04286227002739906,
          -0.06531576812267303
        ],
        "shape": [
          4
        ]
      },
      {
        "values": [
          [
            -0.20665974915027618,
            0.6028855443000793,
            0.7920677065849304
          ],
          [
            -0.24790434539318085,
            0.4993512034416199,
            0.18070366978645325
          ],
          [
            -0.43378540873527527,
            -1.0460354089736938,
            -0.608392059803009
          ],
          [
            -0.21323487162590027,
            0.6033750772476196,
            -0.4295162856578827
          ]
        ],
        "shape": [
          4,
          3
        ]
      },
      {
        "values": [
          -0.019521517679095268,
          -0.144521564245224,
          -0.010900839231908321
        ],
        "shape": [
          3
        ]
      }
    ]
  },
  {
    "class_name": "Sequential",
    "config": {
      "name": "sequential_87",
      "layers": [
        {
          "class_name": "Dense",
          "config": {
            "units": 4,
            "activation": "relu",
            "use_bias": true
          }
        },
        {
          "class_name": "Dense",
          "config": {
            "units": 3,
            "activation": "softmax",
            "use_bias": true
          }
        }
      ]
    },
    "weights": [
      {
        "values": [
          [
            0.23698070645332336,
            0.9126726388931274,
            -0.47354233264923096,
            0.5596415996551514
          ],
          [
            0.07399210333824158,
            0.5018115639686584,
            0.12989161908626556,
            -0.020840778946876526
          ],
          [
            0.20320700109004974,
            0.4409838318824768,
            0.3985449969768524,
            0.0958583876490593
          ],
          [
            -0.011984050273895264,
            -0.6145929098129272,
            -0.19506072998046875,
            -0.11171382665634155
          ]
        ],
        "shape": [
          4,
          4
        ]
      },
      {
        "values": [
          -0.04716803878545761,
          -0.018483072519302368,
          0.04286227002739906,
          -0.06531576812267303
        ],
        "shape": [
          4
        ]
      },
      {
        "values": [
          [
            -0.20665974915027618,
            0.6028855443000793,
            0.7702890038490295
          ],
          [
            -0.28042617440223694,
            0.4993512034416199,
            0.18070366978645325
          ],
          [
            -0.4012141525745392,
            -0.966199517250061,
            -0.5732710957527161
          ],
          [
            -0.2471744418144226,
            0.6124609112739563,
            -0.4295162856578827
          ]
        ],
        "shape": [
          4,
          3
        ]
      },
      {
        "values": [
          -0.014125021174550056,
          -0.144521564245224,
          -0.010900839231908321
        ],
        "shape": [
          3
        ]
      }
    ]
  },
  {
    "class_name": "Sequential",
    "config": {
      "name": "sequential_88",
      "layers": [
        {
          "class_name": "Dense",
          "config": {
            "units": 4,
            "activation": "relu",
            "use_bias": true
          }
        },
        {
          "class_name": "Dense",
          "config": {
            "units": 3,
            "activation": "softmax",
            "use_bias": true
          }
        }
      ]
    },
    "weights": [
      {
        "values": [
          [
            0.14057089388370514,
            0.9344775676727295,
            -0.47354233264923096,
            0.5662678480148315
          ],
          [
            0.05932137742638588,
            0.5035344362258911,
            0.12989161908626556,
            -0.020840778946876526
          ],
          [
            0.20320700109004974,
            0.4409838318824768,
            0.3808613419532776,
            0.0958583876490593
          ],
          [
            -0.011984050273895264,
            -0.6416255235671997,
            -0.1904490441083908,
            -0.15271005034446716
          ]
        ],
        "shape": [
          4,
          4
        ]
      },
      {
        "values": [
          -0.04716803878545761,
          -0.029534561559557915,
          0.04504252225160599,
          -0.06531576812267303
        ],
        "shape": [
          4
        ]
      },
      {
        "values": [
          [
            -0.20665974915027618,
            0.5847390294075012,
            0.7702890038490295
          ],
          [
            -0.24683065712451935,
            0.4525368809700012,
            0.18070366978645325
          ],
          [
            -0.38981735706329346,
            -1.0107675790786743,
            -0.5728186964988708
          ],
          [
            -0.2471744418144226,
            0.6124609112739563,
            -0.4295162856578827
          ]
        ],
        "shape": [
          4,
          3
        ]
      },
      {
        "values": [
          0.009996513836085796,
          -0.144521564245224,
          -0.010900839231908321
        ],
        "shape": [
          3
        ]
      }
    ]
  },
  {
    "class_name": "Sequential",
    "config": {
      "name": "sequential_89",
      "layers": [
        {
          "class_name": "Dense",
          "config": {
            "units": 4,
            "activation": "relu",
            "use_bias": true
          }
        },
        {
          "class_name": "Dense",
          "config": {
            "units": 3,
            "activation": "softmax",
            "use_bias": true
          }
        }
      ]
    },
    "weights": [
      {
        "values": [
          [
            0.14057089388370514,
            0.9344775676727295,
            -0.47354233264923096,
            0.5874863862991333
          ],
          [
            0.05932137742638588,
            0.525213360786438,
            0.12989161908626556,
            -0.009539260528981686
          ],
          [
            0.20320700109004974,
            0.4409838318824768,
            0.3808613419532776,
            0.0958583876490593
          ],
          [
            -0.011984050273895264,
            -0.6145929098129272,
            -0.1904490441083908,
            -0.13002067804336548
          ]
        ],
        "shape": [
          4,
          4
        ]
      },
      {
        "values": [
          -0.04716803878545761,
          -0.05955447256565094,
          0.04504252225160599,
          -0.06531576812267303
        ],
        "shape": [
          4
        ]
      },
      {
        "values": [
          [
            -0.20665974915027618,
            0.6028855443000793,
            0.7920677065849304
          ],
          [
            -0.24790434539318085,
            0.4993512034416199,
            0.18070366978645325
          ],
          [
            -0.43378540873527527,
            -1.0811980962753296,
            -0.608392059803009
          ],
          [
            -0.21323487162590027,
            0.6033750772476196,
            -0.4295162856578827
          ]
        ],
        "shape": [
          4,
          3
        ]
      },
      {
        "values": [
          -0.019521517679095268,
          -0.144521564245224,
          -0.010900839231908321
        ],
        "shape": [
          3
        ]
      }
    ]
  },
  {
    "class_name": "Sequential",
    "config": {
      "name": "sequential_90",
      "layers": [
        {
          "class_name": "Dense",
          "config": {
            "units": 4,
            "activation": "relu",
            "use_bias": true
          }
        },
        {
          "class_name": "Dense",
          "config": {
            "units": 3,
            "activation": "softmax",
            "use_bias": true
          }
        }
      ]
    },
    "weights": [
      {
        "values": [
          [
            0.19852842390537262,
            0.9126726388931274,
            -0.47354233264923096,
            0.5752511620521545
          ],
          [
            0.043980035930871964,
            0.5018115639686584,
            0.12989161908626556,
            -0.020840778946876526
          ],
          [
            0.20320700109004974,
            0.4836898446083069,
            0.3985449969768524,
            0.10111092776060104
          ],
          [
            -0.011984050273895264,
            -0.6544364094734192,
            -0.1904490441083908,
            -0.13002067804336548
          ]
        ],
        "shape": [
          4,
          4
        ]
      },
      {
        "values": [
          -0.04716803878545761,
          -0.05945545807480812,
          0.04286227002739906,
          -0.06531576812267303
        ],
        "shape": [
          4
        ]
      },
      {
        "values": [
          [
            -0.20665974915027618,
            0.6028855443000793,
            0.7702890038490295
          ],
          [
            -0.22831538319587708,
            0.4993512034416199,
            0.13071541488170624
          ],
          [
            -0.4012141525745392,
            -0.966199517250061,
            -0.5732710957527161
          ],
          [
            -0.2471744418144226,
            0.6124609112739563,
            -0.4295162856578827
          ]
        ],
        "shape": [
          4,
          3
        ]
      },
      {
        "values": [
          -0.014125021174550056,
          -0.144521564245224,
          0.02167089842259884
        ],
        "shape": [
          3
        ]
      }
    ]
  },
  {
    "class_name": "Sequential",
    "config": {
      "name": "sequential_91",
      "layers": [
        {
          "class_name": "Dense",
          "config": {
            "units": 4,
            "activation": "relu",
            "use_bias": true
          }
        },
        {
          "class_name": "Dense",
          "config": {
            "units": 3,
            "activation": "softmax",
            "use_bias": true
          }
        }
      ]
    },
    "weights": [
      {
        "values": [
          [
            0.19852842390537262,
            0.9126726388931274,
            -0.47354233264923096,
            0.5596415996551514
          ],
          [
            0.05785801261663437,
            0.4572415053844452,
            0.1454632729291916,
            -0.020840778946876526
          ],
          [
            0.20320700109004974,
            0.4409838318824768,
            0.3985449969768524,
            0.10111092776060104
          ],
          [
            -0.011984050273895264,
            -0.6188710927963257,
            -0.1904490441083908,
            -0.1383538842201233
          ]
        ],
        "shape": [
          4,
          4
        ]
      },
      {
        "values": [
          -0.04716803878545761,
          -0.018483072519302368,
          0.04504252225160599,
          -0.03519608452916145
        ],
        "shape": [
          4
        ]
      },
      {
        "values": [
          [
            -0.20323066413402557,
            0.6028855443000793,
            0.7702890038490295
          ],
          [
            -0.2072782665491104,
            0.5456478595733643,
            0.18070366978645325
          ],
          [
            -0.4012141525745392,
            -0.966199517250061,
            -0.5732710957527161
          ],
          [
            -0.2471744418144226,
            0.5657986998558044,
            -0.4295162856578827
          ]
        ],
        "shape": [
          4,
          3
        ]
      },
      {
        "values": [
          -0.014125021174550056,
          -0.18775399029254913,
          -0.010900839231908321
        ],
        "shape": [
          3
        ]
      }
    ]
  },
  {
    "class_name": "Sequential",
    "config": {
      "name": "sequential_92",
      "layers": [
        {
          "class_name": "Dense",
          "config": {
            "units": 4,
            "activation": "relu",
            "use_bias": true
          }
        },
        {
          "class_name": "Dense",
          "config": {
            "units": 3,
            "activation": "softmax",
            "use_bias": true
          }
        }
      ]
    },
    "weights": [
      {
        "values": [
          [
            0.21941699087619781,
            0.9473280310630798,
            -0.47354233264923096,
            0.5596415996551514
          ],
          [
            0.05932137742638588,
            0.5340573191642761,
            0.1400095820426941,
            -0.020840778946876526
          ],
          [
            0.20320700109004974,
            0.4909045398235321,
            0.3985449969768524,
            0.10111092776060104
          ],
          [
            -0.011984050273895264,
            -0.6145929098129272,
            -0.1904490441083908,
            -0.13002067804336548
          ]
        ],
        "shape": [
          4,
          4
        ]
      },
      {
        "values": [
          -0.04716803878545761,
          -0.05828752741217613,
          0.04489902779459953,
          -0.026874594390392303
        ],
        "shape": [
          4
        ]
      },
      {
        "values": [
          [
            -0.20665974915027618,
            0.6028855443000793,
            0.7920677065849304
          ],
          [
            -0.21687282621860504,
            0.4549597501754761,
            0.22109489142894745
          ],
          [
            -0.4012141525745392,
            -0.9204575419425964,
            -0.5732710957527161
          ],
          [
            -0.24505138397216797,
            0.6124609112739563,
            -0.4295162856578827
          ]
        ],
        "shape": [
          4,
          3
        ]
      },
      {
        "values": [
          -0.014125021174550056,
          -0.144521564245224,
          -0.010900839231908321
        ],
        "shape": [
          3
        ]
      }
    ]
  },
  {
    "class_name": "Sequential",
    "config": {
      "name": "sequential_85",
      "layers": [
        {
          "class_name": "Dense",
          "config": {
            "units": 4,
            "activation": "relu",
            "use_bias": true
          }
        },
        {
          "class_name": "Dense",
          "config": {
            "units": 3,
            "activation": "softmax",
            "use_bias": true
          }
        }
      ]
    },
    "weights": [
      {
        "values": [
          [
            0.19852842390537262,
            0.9126726388931274,
            -0.47420674562454224,
            0.5596415996551514
          ],
          [
            0.05932137742638588,
            0.5018115639686584,
            0.12989161908626556,
            -0.020840778946876526
          ],
          [
            0.20320700109004974,
            0.4409838318824768,
            0.39134401082992554,
            0.06538302451372147
          ],
          [
            -0.040021929889917374,
            -0.6145929098129272,
            -0.22820261120796204,
            -0.13002067804336548
          ]
        ],
        "shape": [
          4,
          4
        ]
      },
      {
        "values": [
          -0.015302158892154694,
          -0.018483072519302368,
          0.06461653858423233,
          -0.06531576812267303
        ],
        "shape": [
          4
        ]
      },
      {
        "values": [
          [
            -0.20665974915027618,
            0.6028855443000793,
            0.8132159113883972
          ],
          [
            -0.24319034814834595,
            0.4993512034416199,
            0.18070366978645325
          ],
          [
            -0.4012141525745392,
            -0.966199517250061,
            -0.559470534324646
          ],
          [
            -0.2471744418144226,
            0.6124609112739563,
            -0.4295162856578827
          ]
        ],
        "shape": [
          4,
          3
        ]
      },
      {
        "values": [
          -0.014125021174550056,
          -0.144521564245224,
          -0.010900839231908321
        ],
        "shape": [
          3
        ]
      }
    ]
  },
  {
    "class_name": "Sequential",
    "config": {
      "name": "sequential_86",
      "layers": [
        {
          "class_name": "Dense",
          "config": {
            "units": 4,
            "activation": "relu",
            "use_bias": true
          }
        },
        {
          "class_name": "Dense",
          "config": {
            "units": 3,
            "activation": "softmax",
            "use_bias": true
          }
        }
      ]
    },
    "weights": [
      {
        "values": [
          [
            0.21941699087619781,
            0.9476828575134277,
            -0.4418209195137024,
            0.5125792026519775
          ],
          [
            0.05932137742638588,
            0.5245558023452759,
            0.15673242509365082,
            -0.020840778946876526
          ],
          [
            0.20716583728790283,
            0.4909045398235321,
            0.43176978826522827,
            0.136198028922081
          ],
          [
            0.01967325434088707,
            -0.6145929098129272,
            -0.15870411694049835,
            -0.13002067804336548
          ]
        ],
        "shape": [
          4,
          4
        ]
      },
      {
        "values": [
          -0.04716803878545761,
          -0.05828752741217613,
          0.03952332213521004,
          -0.06531576812267303
        ],
        "shape": [
          4
        ]
      },
      {
        "values": [
          [
            -0.20665974915027618,
            0.6028855443000793,
            0.7920677065849304
          ],
          [
            -0.24790434539318085,
            0.4993512034416199,
            0.18070366978645325
          ],
          [
            -0.43378540873527527,
            -1.0460354089736938,
            -0.608392059803009
          ],
          [
            -0.21323487162590027,
            0.5692212581634521,
            -0.4295162856578827
          ]
        ],
        "shape": [
          4,
          3
        ]
      },
      {
        "values": [
          -0.06696166843175888,
          -0.144521564245224,
          -0.010900839231908321
        ],
        "shape": [
          3
        ]
      }
    ]
  }
]