[
  {
    "class_name": "Sequential",
    "config": {
      "name": "sequential_40",
      "layers": [
        {
          "class_name": "Dense",
          "config": {
            "units": 4,
            "activation": "relu",
            "use_bias": true
          }
        },
        {
          "class_name": "Dense",
          "config": {
            "units": 3,
            "activation": "softmax",
            "use_bias": true
          }
        }
      ]
    },
    "weights": [
      {
        "values": [
          [
            0.1731327474117279,
            0.9814596772193909,
            -0.47354233264923096,
            0.5662678480148315
          ],
          [
            0.05932137742638588,
            0.525213360786438,
            0.16725100576877594,
            -0.01652899943292141
          ],
          [
            0.20320700109004974,
            0.4409838318824768,
            0.3808613419532776,
            0.10111092776060104
          ],
          [
            0.015964681282639503,
            -0.5675819516181946,
            -0.22115644812583923,
            -0.13002067804336548
          ]
        ],
        "shape": [
          4,
          4
        ]
      },
      {
        "values": [
          -0.004057339392602444,
          -0.0347994789481163,
          0.08921432495117188,
          -0.06531576812267303
        ],
        "shape": [
          4
        ]
      },
      {
        "values": [
          [
            -0.2394661009311676,
            0.6028855443000793,
            0.7758771777153015
          ],
          [
            -0.24790434539318085,
            0.47727036476135254,
            0.232069730758667
          ],
          [
            -0.3822961449623108,
            -0.9950905442237854,
            -0.5852535367012024
          ],
          [
            -0.2471744418144226,
            0.6124609112739563,
            -0.4245006740093231
          ]
        ],
        "shape": [
          4,
          3
        ]
      },
      {
        "values": [
          0.007040626835078001,
          -0.19431832432746887,
          -0.05947468802332878
        ],
        "shape": [
          3
        ]
      }
    ]
  },
  {
    "class_name": "Sequential",
    "config": {
      "name": "sequential_13",
      "layers": [
        {
          "class_name": "Dense",
          "config": {
            "units": 4,
            "activation": "relu",
            "use_bias": true
          }
        },
        {
          "class_name": "Dense",
          "config": {
            "units": 3,
            "activation": "softmax",
            "use_bias": true
          }
        }
      ]
    },
    "weights": [
      {
        "values": [
          [
            0.1731327474117279,
            0.9344775676727295,
            -0.47354233264923096,
            0.5662678480148315
          ],
          [
            0.05932137742638588,
            0.525213360786438,
            0.12989161908626556,
            -0.020840778946876526
          ],
          [
            0.20320700109004974,
            0.4409838318824768,
            0.3808613419532776,
            0.10111092776060104
          ],
          [
            -0.011984050273895264,
            -0.6145929098129272,
            -0.1904490441083908,
            -0.13002067804336548
          ]
        ],
        "shape": [
          4,
          4
        ]
      },
      {
        "values": [
          -0.04716803878545761,
          -0.018483072519302368,
          0.04504252225160599,
          -0.06531576812267303
        ],
        "shape": [
          4
        ]
      },
      {
        "values": [
          [
            -0.20665974915027618,
            0.6028855443000793,
            0.7702890038490295
          ],
          [
            -0.24790434539318085,
            0.47727036476135254,
            0.18070366978645325
          ],
          [
            -0.4012141525745392,
            -0.966199517250061,
            -0.5852535367012024
          ],
          [
            -0.2471744418144226,
            0.6124609112739563,
            -0.4295162856578827
          ]
        ],
        "shape": [
          4,
          3
        ]
      },
      {
        "values": [
          -0.014125021174550056,
          -0.144521564245224,
          -0.010900839231908321
        ],
        "shape": [
          3
        ]
      }
    ]
  },
  {
    "class_name": "Sequential",
    "config": {
      "name": "sequential_37",
      "layers": [
        {
          "class_name": "Dense",
          "config": {
            "units": 4,
            "activation": "relu",
            "use_bias": true
          }
        },
        {
          "class_name": "Dense",
          "config": {
            "units": 3,
            "activation": "softmax",
            "use_bias": true
          }
        }
      ]
    },
    "weights": [
      {
        "values": [
          [
            0.19852842390537262,
            0.9126726388931274,
            -0.47354233264923096,
            0.5596415996551514
          ],
          [
            0.05932137742638588,
            0.5018115639686584,
            0.12989161908626556,
            -0.020840778946876526
          ],
          [
            0.20320700109004974,
            0.4409838318824768,
            0.3985449969768524,
            0.10111092776060104
          ],
          [
            -0.011984050273895264,
            -0.6145929098129272,
            -0.1904490441083908,
            -0.13002067804336548
          ]
        ],
        "shape": [
          4,
          4
        ]
      },
      {
        "values": [
          -0.04716803878545761,
          -0.018483072519302368,
          0.04286227002739906,
          -0.06531576812267303
        ],
        "shape": [
          4
        ]
      },
      {
        "values": [
          [
            -0.20665974915027618,
            0.6028855443000793,
            0.7702890038490295
          ],
          [
            -0.24790434539318085,
            0.4993512034416199,
            0.18070366978645325
          ],
          [
            -0.4012141525745392,
            -0.966199517250061,
            -0.5732710957527161
          ],
          [
            -0.2471744418144226,
            0.6124609112739563,
            -0.4295162856578827
          ]
        ],
        "shape": [
          4,
          3
        ]
      },
      {
        "values": [
          -0.014125021174550056,
          -0.144521564245224,
          -0.010900839231908321
        ],
        "shape": [
          3
        ]
      }
    ]
  },
  {
    "class_name": "Sequential",
    "config": {
      "name": "sequential_39",
      "layers": [
        {
          "class_name": "Dense",
          "config": {
            "units": 4,
            "activation": "relu",
            "use_bias": true
          }
        },
        {
          "class_name": "Dense",
          "config": {
            "units": 3,
            "activation": "softmax",
            "use_bias": true
          }
        }
      ]
    },
    "weights": [
      {
        "values": [
          [
            0.1731327474117279,
            0.9410009384155273,
            -0.47354233264923096,
            0.5662678480148315
          ],
          [
            0.023902639746665955,
            0.5704731345176697,
            0.12989161908626556,
            -0.032687947154045105
          ],
          [
            0.20147307217121124,
            0.41151246428489685,
            0.3808613419532776,
            0.10111092776060104
          ],
          [
            0.015964681282639503,
            -0.5675819516181946,
            -0.22115644812583923,
            -0.13002067804336548
          ]
        ],
        "shape": [
          4,
          4
        ]
      },
      {
        "values": [
          -0.04716803878545761,
          -0.018483072519302368,
          0.08921432495117188,
          -0.06531576812267303
        ],
        "shape": [
          4
        ]
      },
      {
        "values": [
          [
            -0.20665974915027618,
            0.6028855443000793,
            0.7555143237113953
          ],
          [
            -0.24790434539318085,
            0.47727036476135254,
            0.232069730758667
          ],
          [
            -0.3822961449623108,
            -0.966199517250061,
            -0.5852535367012024
          ],
          [
            -0.2351863533258438,
            0.6124609112739563,
            -0.4245006740093231
          ]
        ],
        "shape": [
          4,
          3
        ]
      },
      {
        "values": [
          -0.014125021174550056,
          -0.144521564245224,
          -0.02315509133040905
        ],
        "shape": [
          3
        ]
      }
    ]
  },
  {
    "class_name": "Sequential",
    "config": {
      "name": "sequential_47",
      "layers": [
        {
          "class_name": "Dense",
          "config": {
            "units": 4,
            "activation": "relu",
            "use_bias": true
          }
        },
        {
          "class_name": "Dense",
          "config": {
            "units": 3,
            "activation": "softmax",
            "use_bias": true
          }
        }
      ]
    },
    "weights": [
      {
        "values": [
          [
            0.1731327474117279,
            0.9344775676727295,
            -0.47354233264923096,
            0.5662678480148315
          ],
          [
            0.05932137742638588,
            0.5125146508216858,
            0.1728544533252716,
            -0.043975718319416046
          ],
          [
            0.20320700109004974,
            0.4409838318824768,
            0.3808613419532776,
            0.05453946813941002
          ],
          [
            0.02380300685763359,
            -0.6145929098129272,
            -0.1904490441083908,
            -0.13939395546913147
          ]
        ],
        "shape": [
          4,
          4
        ]
      },
      {
        "values": [
          -0.04716803878545761,
          -0.018483072519302368,
          0.04504252225160599,
          -0.06531576812267303
        ],
        "shape": [
          4
        ]
      },
      {
        "values": [
          [
            -0.2374257594347,
            0.6255420446395874,
            0.7702890038490295
          ],
          [
            -0.24790434539318085,
            0.47727036476135254,
            0.132306307554245
          ],
          [
            -0.3530045449733734,
            -0.966199517250061,
            -0.5852535367012024
          ],
          [
            -0.2471744418144226,
            0.6124609112739563,
            -0.4295162856578827
          ]
        ],
        "shape": [
          4,
          3
        ]
      },
      {
        "values": [
          -0.014125021174550056,
          -0.12765009701251984,
          -0.02017204463481903
        ],
        "shape": [
          3
        ]
      }
    ]
  },
  {
    "class_name": "Sequential",
    "config": {
      "name": "sequential_48",
      "layers": [
        {
          "class_name": "Dense",
          "config": {
            "units": 4,
            "activation": "relu",
            "use_bias": true
          }
        },
        {
          "class_name": "Dense",
          "config": {
            "units": 3,
            "activation": "softmax",
            "use_bias": true
          }
        }
      ]
    },
    "weights": [
      {
        "values": [
          [
            0.1731327474117279,
            0.966456413269043,
            -0.47354233264923096,
            0.5662678480148315
          ],
          [
            0.05932137742638588,
            0.5288565754890442,
            0.16725100576877594,
            -0.01652899943292141
          ],
          [
            0.19902800023555756,
            0.48923078179359436,
            0.3808613419532776,
            0.07207398116588593
          ],
          [
            0.015964681282639503,
            -0.6145929098129272,
            -0.1904490441083908,
            -0.10003442317247391
          ]
        ],
        "shape": [
          4,
          4
        ]
      },
      {
        "values": [
          -0.04716803878545761,
          -0.018483072519302368,
          0.04504252225160599,
          -0.10803723335266113
        ],
        "shape": [
          4
        ]
      },
      {
        "values": [
          [
            -0.2394661009311676,
            0.6342895030975342,
            0.7758771777153015
          ],
          [
            -0.24790434539318085,
            0.47727036476135254,
            0.232069730758667
          ],
          [
            -0.4012141525745392,
            -0.966199517250061,
            -0.5852535367012024
          ],
          [
            -0.2471744418144226,
            0.6124609112739563,
            -0.4295162856578827
          ]
        ],
        "shape": [
          4,
          3
        ]
      },
      {
        "values": [
          -0.014125021174550056,
          -0.144521564245224,
          -0.010900839231908321
        ],
        "shape": [
          3
        ]
      }
    ]
  },
  {
    "class_name": "Sequential",
    "config": {
      "name": "sequential_49",
      "layers": [
        {
          "class_name": "Dense",
          "config": {
            "units": 4,
            "activation": "relu",
            "use_bias": true
          }
        },
        {
          "class_name": "Dense",
          "config": {
            "units": 3,
            "activation": "softmax",
            "use_bias": true
          }
        }
      ]
    },
    "weights": [
      {
        "values": [
          [
            0.1731327474117279,
            0.9410009384155273,
            -0.47354233264923096,
            0.5662678480148315
          ],
          [
            0.023902639746665955,
            0.5704731345176697,
            0.1425061821937561,
            -0.032687947154045105
          ],
          [
            0.17419598996639252,
            0.41151246428489685,
            0.3808613419532776,
            0.10111092776060104
          ],
          [
            0.015964681282639503,
            -0.5675819516181946,
            -0.22115644812583923,
            -0.13002067804336548
          ]
        ],
        "shape": [
          4,
          4
        ]
      },
      {
        "values": [
          -0.08631312102079391,
          -0.0347994789481163,
          0.108322374522686,
          -0.06531576812267303
        ],
        "shape": [
          4
        ]
      },
      {
        "values": [
          [
            -0.20665974915027618,
            0.6028855443000793,
            0.7555143237113953
          ],
          [
            -0.24790434539318085,
            0.47727036476135254,
            0.232069730758667
          ],
          [
            -0.3822961449623108,
            -0.9950905442237854,
            -0.5852535367012024
          ],
          [
            -0.25419628620147705,
            0.6040597558021545,
            -0.4245006740093231
          ]
        ],
        "shape": [
          4,
          3
        ]
      },
      {
        "values": [
          0.007040626835078001,
          -0.16822265088558197,
          -0.04746982082724571
        ],
        "shape": [
          3
        ]
      }
    ]
  },
  {
    "class_name": "Sequential",
    "config": {
      "name": "sequential_50",
      "layers": [
        {
          "class_name": "Dense",
          "config": {
            "units": 4,
            "activation": "relu",
            "use_bias": true
          }
        },
        {
          "class_name": "Dense",
          "config": {
            "units": 3,
            "activation": "softmax",
            "use_bias": true
          }
        }
      ]
    },
    "weights": [
      {
        "values": [
          [
            0.19852842390537262,
            0.9126726388931274,
            -0.4885489344596863,
            0.5596415996551514
          ],
          [
            0.05932137742638588,
            0.5384299159049988,
            0.1400095820426941,
            -0.020840778946876526
          ],
          [
            0.20320700109004974,
            0.4545902907848358,
            0.3985449969768524,
            0.10111092776060104
          ],
          [
            0.01967325434088707,
            -0.6145929098129272,
            -0.1904490441083908,
            -0.13002067804336548
          ]
        ],
        "shape": [
          4,
          4
        ]
      },
      {
        "values": [
          -0.04716803878545761,
          -0.04368452727794647,
          0.04504252225160599,
          -0.06531576812267303
        ],
        "shape": [
          4
        ]
      },
      {
        "values": [
          [
            -0.2049674242734909,
            0.6028855443000793,
            0.7702890038490295
          ],
          [
            -0.24790434539318085,
            0.4993512034416199,
            0.18070366978645325
          ],
          [
            -0.4012141525745392,
            -0.9992209672927856,
            -0.608392059803009
          ],
          [
            -0.2471744418144226,
            0.6012116074562073,
            -0.4295162856578827
          ]
        ],
        "shape": [
          4,
          3
        ]
      },
      {
        "values": [
          -0.014125021174550056,
          -0.144521564245224,
          -0.010900839231908321
        ],
        "shape": [
          3
        ]
      }
    ]
  },
  {
    "class_name": "Sequential",
    "config": {
      "name": "sequential_51",
      "layers": [
        {
          "class_name": "Dense",
          "config": {
            "units": 4,
            "activation": "relu",
            "use_bias": true
          }
        },
        {
          "class_name": "Dense",
          "config": {
            "units": 3,
            "activation": "softmax",
            "use_bias": true
          }
        }
      ]
    },
    "weights": [
      {
        "values": [
          [
            0.1731327474117279,
            0.9814596772193909,
            -0.511590838432312,
            0.5662678480148315
          ],
          [
            0.05932137742638588,
            0.525213360786438,
            0.16725100576877594,
            -0.01652899943292141
          ],
          [
            0.24673666059970856,
            0.4409838318824768,
            0.3808613419532776,
            0.10111092776060104
          ],
          [
            0.06370387971401215,
            -0.6136321425437927,
            -0.22115644812583923,
            -0.13002067804336548
          ]
        ],
        "shape": [
          4,
          4
        ]
      },
      {
        "values": [
          -0.04716803878545761,
          -0.018483072519302368,
          0.04286227002739906,
          -0.0932430848479271
        ],
        "shape": [
          4
        ]
      },
      {
        "values": [
          [
            -0.2394661009311676,
            0.6028855443000793,
            0.7322574257850647
          ],
          [
            -0.24790434539318085,
            0.4993512034416199,
            0.1574963629245758
          ],
          [
            -0.4482470154762268,
            -0.9569960236549377,
            -0.5732710957527161
          ],
          [
            -0.2471744418144226,
            0.6124609112739563,
            -0.4278162717819214
          ]
        ],
        "shape": [
          4,
          3
        ]
      },
      {
        "values": [
          0.01433764211833477,
          -0.144521564245224,
          -0.010900839231908321
        ],
        "shape": [
          3
        ]
      }
    ]
  },
  {
    "class_name": "Sequential",
    "config": {
      "name": "sequential_52",
      "layers": [
        {
          "class_name": "Dense",
          "config": {
            "units": 4,
            "activation": "relu",
            "use_bias": true
          }
        },
        {
          "class_name": "Dense",
          "config": {
            "units": 3,
            "activation": "softmax",
            "use_bias": true
          }
        }
      ]
    },
    "weights": [
      {
        "values": [
          [
            0.16127769649028778,
            0.9126726388931274,
            -0.47354233264923096,
            0.5596415996551514
          ],
          [
            0.05932137742638588,
            0.5018115639686584,
            0.12989161908626556,
            -0.020840778946876526
          ],
          [
            0.20320700109004974,
            0.4409838318824768,
            0.3985449969768524,
            0.10111092776060104
          ],
          [
            -0.011984050273895264,
            -0.6145929098129272,
            -0.1904490441083908,
            -0.09249171614646912
          ]
        ],
        "shape": [
          4,
          4
        ]
      },
      {
        "values": [
          -0.03660501912236214,
          -0.05146082490682602,
          0.04504252225160599,
          -0.06531576812267303
        ],
        "shape": [
          4
        ]
      },
      {
        "values": [
          [
            -0.20665974915027618,
            0.6028855443000793,
            0.7702890038490295
          ],
          [
            -0.24790434539318085,
            0.47727036476135254,
            0.18070366978645325
          ],
          [
            -0.4012141525745392,
            -0.966199517250061,
            -0.5852535367012024
          ],
          [
            -0.2471744418144226,
            0.6124609112739563,
            -0.39202794432640076
          ]
        ],
        "shape": [
          4,
          3
        ]
      },
      {
        "values": [
          -0.0334259532392025,
          -0.144521564245224,
          -0.010900839231908321
        ],
        "shape": [
          3
        ]
      }
    ]
  },
  {
    "class_name": "Sequential",
    "config": {
      "name": "sequential_44",
      "layers": [
        {
          "class_name": "Dense",
          "config": {
            "units": 4,
            "activation": "relu",
            "use_bias": true
          }
        },
        {
          "class_name": "Dense",
          "config": {
            "units": 3,
            "activation": "softmax",
            "use_bias": true
          }
        }
      ]
    },
    "weights": [
      {
        "values": [
          [
            0.1731327474117279,
            0.9344775676727295,
            -0.47354233264923096,
            0.5662678480148315
          ],
          [
            0.09763574600219727,
            0.525213360786438,
            0.10818091779947281,
            -0.020840778946876526
          ],
          [
            0.20320700109004974,
            0.4409838318824768,
            0.3808613419532776,
            0.10461060702800751
          ],
          [
            -0.03203743323683739,
            -0.6145929098129272,
            -0.1904490441083908,
            -0.13002067804336548
          ]
        ],
        "shape": [
          4,
          4
        ]
      },
      {
        "values": [
          -0.04716803878545761,
          -0.018483072519302368,
          0.04504252225160599,
          -0.06531576812267303
        ],
        "shape": [
          4
        ]
      },
      {
        "values": [
          [
            -0.20665974915027618,
            0.6028855443000793,
            0.7685558795928955
          ],
          [
            -0.24790434539318085,
            0.47727036476135254,
            0.18070366978645325
          ],
          [
            -0.4230262041091919,
            -0.9281378984451294,
            -0.5852535367012024
          ],
          [
            -0.2471744418144226,
            0.6124609112739563,
            -0.4603647291660309
          ]
        ],
        "shape": [
          4,
          3
        ]
      },
      {
        "values": [
          0.0001200896585942246,
          -0.144521564245224,
          -0.010900839231908321
        ],
        "shape": [
          3
        ]
      }
    ]
  },
  {
    "class_name": "Sequential",
    "config": {
      "name": "sequential_44",
      "layers": [
        {
          "class_name": "Dense",
          "config": {
            "units": 4,
            "activation": "relu",
            "use_bias": true
          }
        },
        {
          "class_name": "Dense",
          "config": {
            "units": 3,
            "activation": "softmax",
            "use_bias": true
          }
        }
      ]
    },
    "weights": [
      {
        "values": [
          [
            0.1731327474117279,
            0.9344775676727295,
            -0.47354233264923096,
            0.5662678480148315
          ],
          [
            0.09763574600219727,
            0.525213360786438,
            0.10818091779947281,
            -0.020840778946876526
          ],
          [
            0.20320700109004974,
            0.4409838318824768,
            0.3808613419532776,
            0.10461060702800751
          ],
          [
            -0.03203743323683739,
            -0.6145929098129272,
            -0.1904490441083908,
            -0.13002067804336548
          ]
        ],
        "shape": [
          4,
          4
        ]
      },
      {
        "values": [
          -0.04716803878545761,
          -0.018483072519302368,
          0.04504252225160599,
          -0.06531576812267303
        ],
        "shape": [
          4
        ]
      },
      {
        "values": [
          [
            -0.20665974915027618,
            0.6028855443000793,
            0.7685558795928955
          ],
          [
            -0.24790434539318085,
            0.47727036476135254,
            0.18070366978645325
          ],
          [
            -0.4230262041091919,
            -0.9281378984451294,
            -0.5852535367012024
          ],
          [
            -0.2471744418144226,
            0.6124609112739563,
            -0.4603647291660309
          ]
        ],
        "shape": [
          4,
          3
        ]
      },
      {
        "values": [
          0.0001200896585942246,
          -0.144521564245224,
          -0.010900839231908321
        ],
        "shape": [
          3
        ]
      }
    ]
  }
]