[
  {
    "class_name": "Sequential",
    "config": {
      "name": "sequential_1583",
      "layers": [
        {
          "class_name": "Dense",
          "config": {
            "units": 6,
            "activation": "relu",
            "use_bias": true
          }
        },
        {
          "class_name": "Dense",
          "config": {
            "units": 3,
            "activation": "softmax",
            "use_bias": true
          }
        }
      ]
    },
    "weights": [
      {
        "values": [
          [
            -0.4178433120250702,
            -0.11224141716957092,
            -0.8413217663764954,
            -0.47994476556777954,
            0.0688369870185852,
            0.5604169368743896
          ],
          [
            0.3704020380973816,
            -0.48402833938598633,
            0.17910391092300415,
            -0.8977029323577881,
            -0.7012434601783752,
            -0.5532932877540588
          ],
          [
            -0.3054543137550354,
            -0.22638952732086182,
            -0.17022502422332764,
            0.1208885982632637,
            0.06926435232162476,
            0.46633797883987427
          ],
          [
            0.057958196848630905,
            0.0004891064018011093,
            0.32612234354019165,
            0.3918784260749817,
            -0.046082738786935806,
            -0.03161175921559334
          ]
        ],
        "shape": [
          4,
          6
        ]
      },
      {
        "values": [
          -0.05104939639568329,
          0.1391075700521469,
          0.026730520650744438,
          -0.0038570226170122623,
          0.051788076758384705,
          0.03835340589284897
        ],
        "shape": [
          6
        ]
      },
      {
        "values": [
          [
            -0.6544007658958435,
            0.6481442451477051,
            0.14454343914985657
          ],
          [
            -0.4078659117221832,
            0.7383642792701721,
            0.16185620427131653
          ],
          [
            0.08707799762487411,
            0.3664153218269348,
            0.5550240278244019
          ],
          [
            -0.5256004929542542,
            0.2641809582710266,
            0.4819727838039398
          ],
          [
            -0.6090777516365051,
            -0.08720006793737411,
            0.11344239115715027
          ],
          [
            0.11507552862167358,
            0.05709220841526985,
            0.2105473130941391
          ]
        ],
        "shape": [
          6,
          3
        ]
      },
      {
        "values": [
          0.04771703481674194,
          -0.04862178489565849,
          -0.0033399653621017933
        ],
        "shape": [
          3
        ]
      }
    ]
  },
  {
    "class_name": "Sequential",
    "config": {
      "name": "sequential_1580",
      "layers": [
        {
          "class_name": "Dense",
          "config": {
            "units": 6,
            "activation": "relu",
            "use_bias": true
          }
        },
        {
          "class_name": "Dense",
          "config": {
            "units": 3,
            "activation": "softmax",
            "use_bias": true
          }
        }
      ]
    },
    "weights": [
      {
        "values": [
          [
            -0.4178433120250702,
            -0.10870114713907242,
            -0.8440418243408203,
            -0.4663063883781433,
            0.06890106946229935,
            0.5133774876594543
          ],
          [
            0.33683574199676514,
            -0.48402833938598633,
            0.21245113015174866,
            -0.851687490940094,
            -0.7012434601783752,
            -0.5090955495834351
          ],
          [
            -0.3054543137550354,
            -0.22922857105731964,
            -0.2053583562374115,
            0.07951749861240387,
            0.06926435232162476,
            0.46633797883987427
          ],
          [
            0.057958196848630905,
            0.0004891064018011093,
            0.3418835997581482,
            0.3918784260749817,
            -0.06689763814210892,
            -0.03161175921559334
          ]
        ],
        "shape": [
          4,
          6
        ]
      },
      {
        "values": [
          -0.05104939639568329,
          0.1391075700521469,
          0.026730520650744438,
          -0.010841483250260353,
          0.042171817272901535,
          0.0781952291727066
        ],
        "shape": [
          6
        ]
      },
      {
        "values": [
          [
            -0.6544007658958435,
            0.697296142578125,
            0.1881556659936905
          ],
          [
            -0.4078659117221832,
            0.7383642792701721,
            0.16185620427131653
          ],
          [
            0.08527258038520813,
            0.3664153218269348,
            0.5550240278244019
          ],
          [
            -0.5281020402908325,
            0.2641809582710266,
            0.4743015170097351
          ],
          [
            -0.6090777516365051,
            -0.045781541615724564,
            0.11344239115715027
          ],
          [
            0.11507552862167358,
            0.023417526856064796,
            0.2105473130941391
          ]
        ],
        "shape": [
          6,
          3
        ]
      },
      {
        "values": [
          0.051756445318460464,
          -0.019693586975336075,
          -0.0033399653621017933
        ],
        "shape": [
          3
        ]
      }
    ]
  },
  {
    "class_name": "Sequential",
    "config": {
      "name": "sequential_1592",
      "layers": [
        {
          "class_name": "Dense",
          "config": {
            "units": 6,
            "activation": "relu",
            "use_bias": true
          }
        },
        {
          "class_name": "Dense",
          "config": {
            "units": 3,
            "activation": "softmax",
            "use_bias": true
          }
        }
      ]
    },
    "weights": [
      {
        "values": [
          [
            -0.4461725354194641,
            -0.11224141716957092,
            -0.8440418243408203,
            -0.4663063883781433,
            0.0688369870185852,
            0.5604169368743896
          ],
          [
            0.33683574199676514,
            -0.48402833938598633,
            0.2054896503686905,
            -0.8977029323577881,
            -0.7012434601783752,
            -0.5532932877540588
          ],
          [
            -0.3054543137550354,
            -0.22638952732086182,
            -0.17022502422332764,
            0.1208885982632637,
            0.04311387613415718,
            0.4643379747867584
          ],
          [
            0.057958196848630905,
            0.0004891064018011093,
            0.3418835997581482,
            0.3918784260749817,
            -0.06689763814210892,
            -0.053756531327962875
          ]
        ],
        "shape": [
          4,
          6
        ]
      },
      {
        "values": [
          -0.0681038424372673,
          0.16776929795742035,
          0.026730520650744438,
          -0.010841483250260353,
          0.058950867503881454,
          0.03835340589284897
        ],
        "shape": [
          6
        ]
      },
      {
        "values": [
          [
            -0.6544007658958435,
            0.697296142578125,
            0.14454343914985657
          ],
          [
            -0.4078659117221832,
            0.7383642792701721,
            0.16185620427131653
          ],
          [
            0.06658391654491425,
            0.3664153218269348,
            0.5936374068260193
          ],
          [
            -0.5256004929542542,
            0.2641809582710266,
            0.47970566153526306
          ],
          [
            -0.6090777516365051,
            -0.04122196137905121,
            0.11344239115715027
          ],
          [
            0.11731436848640442,
            0.05709220841526985,
            0.2105473130941391
          ]
        ],
        "shape": [
          6,
          3
        ]
      },
      {
        "values": [
          0.051756445318460464,
          -0.04862178489565849,
          -0.0033399653621017933
        ],
        "shape": [
          3
        ]
      }
    ]
  },
  {
    "class_name": "Sequential",
    "config": {
      "name": "sequential_1589",
      "layers": [
        {
          "class_name": "Dense",
          "config": {
            "units": 6,
            "activation": "relu",
            "use_bias": true
          }
        },
        {
          "class_name": "Dense",
          "config": {
            "units": 3,
            "activation": "softmax",
            "use_bias": true
          }
        }
      ]
    },
    "weights": [
      {
        "values": [
          [
            -0.4507687985897064,
            -0.10870114713907242,
            -0.803905725479126,
            -0.4410126805305481,
            0.06890106946229935,
            0.5398639440536499
          ],
          [
            0.3570183217525482,
            -0.5247198343276978,
            0.1938006579875946,
            -0.8811085224151611,
            -0.7012434601783752,
            -0.5342662930488586
          ],
          [
            -0.3404980003833771,
            -0.22922857105731964,
            -0.17300094664096832,
            0.09668003022670746,
            0.06926435232162476,
            0.4589613676071167
          ],
          [
            0.03167672082781792,
            0.0014676125720143318,
            0.3418835997581482,
            0.3835495710372925,
            -0.051617857068777084,
            -0.009195439517498016
          ]
        ],
        "shape": [
          4,
          6
        ]
      },
      {
        "values": [
          -0.05104939639568329,
          0.1572653353214264,
          -0.018670346587896347,
          -0.010841483250260353,
          0.06899039447307587,
          0.0781952291727066
        ],
        "shape": [
          6
        ]
      },
      {
        "values": [
          [
            -0.6544007658958435,
            0.7396385669708252,
            0.14454343914985657
          ],
          [
            -0.4078659117221832,
            0.7383642792701721,
            0.1786755621433258
          ],
          [
            0.08527258038520813,
            0.3664153218269348,
            0.5201056599617004
          ],
          [
            -0.5256004929542542,
            0.27788811922073364,
            0.4998539090156555
          ],
          [
            -0.6090777516365051,
            -0.050339892506599426,
            0.09074070304632187
          ],
          [
            0.11507552862167358,
            0.05709220841526985,
            0.2105473130941391
          ]
        ],
        "shape": [
          6,
          3
        ]
      },
      {
        "values": [
          0.051756445318460464,
          -0.019693586975336075,
          -0.0033399653621017933
        ],
        "shape": [
          3
        ]
      }
    ]
  },
  {
    "class_name": "Sequential",
    "config": {
      "name": "sequential_1597",
      "layers": [
        {
          "class_name": "Dense",
          "config": {
            "units": 6,
            "activation": "relu",
            "use_bias": true
          }
        },
        {
          "class_name": "Dense",
          "config": {
            "units": 3,
            "activation": "softmax",
            "use_bias": true
          }
        }
      ]
    },
    "weights": [
      {
        "values": [
          [
            -0.4178433120250702,
            -0.10870114713907242,
            -0.8440418243408203,
            -0.4663063883781433,
            0.06890106946229935,
            0.5133774876594543
          ],
          [
            0.33683574199676514,
            -0.48402833938598633,
            0.20639736950397491,
            -0.851687490940094,
            -0.6577322483062744,
            -0.5369296073913574
          ],
          [
            -0.3054543137550354,
            -0.22922857105731964,
            -0.19956155121326447,
            0.07951749861240387,
            0.06926435232162476,
            0.4349592626094818
          ],
          [
            0.057958196848630905,
            0.0004891064018011093,
            0.3418835997581482,
            0.3918784260749817,
            -0.06689763814210892,
            -0.03161175921559334
          ]
        ],
        "shape": [
          4,
          6
        ]
      },
      {
        "values": [
          -0.05104939639568329,
          0.1391075700521469,
          0.026730520650744438,
          -0.010841483250260353,
          0.042171817272901535,
          0.0781952291727066
        ],
        "shape": [
          6
        ]
      },
      {
        "values": [
          [
            -0.644807755947113,
            0.697296142578125,
            0.14410483837127686
          ],
          [
            -0.37601199746131897,
            0.7383642792701721,
            0.16185620427131653
          ],
          [
            0.08527258038520813,
            0.3664153218269348,
            0.5550240278244019
          ],
          [
            -0.5442044138908386,
            0.2641809582710266,
            0.4743015170097351
          ],
          [
            -0.6090777516365051,
            -0.04941552132368088,
            0.11344239115715027
          ],
          [
            0.11507552862167358,
            0.023417526856064796,
            0.2105473130941391
          ]
        ],
        "shape": [
          6,
          3
        ]
      },
      {
        "values": [
          0.051756445318460464,
          -0.019693586975336075,
          -0.0033399653621017933
        ],
        "shape": [
          3
        ]
      }
    ]
  },
  {
    "class_name": "Sequential",
    "config": {
      "name": "sequential_1598",
      "layers": [
        {
          "class_name": "Dense",
          "config": {
            "units": 6,
            "activation": "relu",
            "use_bias": true
          }
        },
        {
          "class_name": "Dense",
          "config": {
            "units": 3,
            "activation": "softmax",
            "use_bias": true
          }
        }
      ]
    },
    "weights": [
      {
        "values": [
          [
            -0.4507687985897064,
            -0.10870114713907242,
            -0.803905725479126,
            -0.42023950815200806,
            0.10813555866479874,
            0.5398639440536499
          ],
          [
            0.3570183217525482,
            -0.5247198343276978,
            0.1938006579875946,
            -0.8811085224151611,
            -0.7012434601783752,
            -0.5342662930488586
          ],
          [
            -0.3404980003833771,
            -0.22922857105731964,
            -0.17300094664096832,
            0.09668003022670746,
            0.09426797926425934,
            0.46633797883987427
          ],
          [
            0.057958196848630905,
            0.0004891064018011093,
            0.3418835997581482,
            0.3918784260749817,
            -0.06689763814210892,
            0.012011879123747349
          ]
        ],
        "shape": [
          4,
          6
        ]
      },
      {
        "values": [
          -0.05104939639568329,
          0.13894067704677582,
          -0.018670346587896347,
          -0.010841483250260353,
          0.03425617888569832,
          0.0781952291727066
        ],
        "shape": [
          6
        ]
      },
      {
        "values": [
          [
            -0.6067213416099548,
            0.7396385669708252,
            0.14454343914985657
          ],
          [
            -0.37380874156951904,
            0.7383642792701721,
            0.16185620427131653
          ],
          [
            0.08527258038520813,
            0.3664153218269348,
            0.5550240278244019
          ],
          [
            -0.5281020402908325,
            0.2641809582710266,
            0.4837501049041748
          ],
          [
            -0.6090777516365051,
            -0.045781541615724564,
            0.11344239115715027
          ],
          [
            0.11507552862167358,
            0.03243730589747429,
            0.2595522999763489
          ]
        ],
        "shape": [
          6,
          3
        ]
      },
      {
        "values": [
          0.051756445318460464,
          -0.019693586975336075,
          -0.0033399653621017933
        ],
        "shape": [
          3
        ]
      }
    ]
  },
  {
    "class_name": "Sequential",
    "config": {
      "name": "sequential_1599",
      "layers": [
        {
          "class_name": "Dense",
          "config": {
            "units": 6,
            "activation": "relu",
            "use_bias": true
          }
        },
        {
          "class_name": "Dense",
          "config": {
            "units": 3,
            "activation": "softmax",
            "use_bias": true
          }
        }
      ]
    },
    "weights": [
      {
        "values": [
          [
            -0.4222988784313202,
            -0.11224141716957092,
            -0.8413217663764954,
            -0.47994476556777954,
            0.0688369870185852,
            0.5604169368743896
          ],
          [
            0.3704020380973816,
            -0.48402833938598633,
            0.17910391092300415,
            -0.8766054511070251,
            -0.7012434601783752,
            -0.5532932877540588
          ],
          [
            -0.3404980003833771,
            -0.22922857105731964,
            -0.21950827538967133,
            0.09668003022670746,
            0.08629525452852249,
            0.4589613676071167
          ],
          [
            0.03167672082781792,
            0.0014676125720143318,
            0.3418835997581482,
            0.4052039384841919,
            -0.051617857068777084,
            -0.009195439517498016
          ]
        ],
        "shape": [
          4,
          6
        ]
      },
      {
        "values": [
          -0.05104939639568329,
          0.1391075700521469,
          -0.004866165574640036,
          -0.006343446671962738,
          0.06899039447307587,
          0.0781952291727066
        ],
        "shape": [
          6
        ]
      },
      {
        "values": [
          [
            -0.6544007658958435,
            0.6481442451477051,
            0.14454343914985657
          ],
          [
            -0.44685718417167664,
            0.7514505386352539,
            0.12750497460365295
          ],
          [
            0.08527258038520813,
            0.3664153218269348,
            0.5201056599617004
          ],
          [
            -0.5256004929542542,
            0.27788811922073364,
            0.4998539090156555
          ],
          [
            -0.6090777516365051,
            -0.05762016400694847,
            0.09074070304632187
          ],
          [
            0.11507552862167358,
            0.05709220841526985,
            0.2105473130941391
          ]
        ],
        "shape": [
          6,
          3
        ]
      },
      {
        "values": [
          0.04771703481674194,
          -0.019693586975336075,
          -0.0033399653621017933
        ],
        "shape": [
          3
        ]
      }
    ]
  },
  {
    "class_name": "Sequential",
    "config": {
      "name": "sequential_1600",
      "layers": [
        {
          "class_name": "Dense",
          "config": {
            "units": 6,
            "activation": "relu",
            "use_bias": true
          }
        },
        {
          "class_name": "Dense",
          "config": {
            "units": 3,
            "activation": "softmax",
            "use_bias": true
          }
        }
      ]
    },
    "weights": [
      {
        "values": [
          [
            -0.4461725354194641,
            -0.11224141716957092,
            -0.8440418243408203,
            -0.4663063883781433,
            0.0688369870185852,
            0.5604169368743896
          ],
          [
            0.33683574199676514,
            -0.5006346106529236,
            0.2054896503686905,
            -0.8977029323577881,
            -0.7012434601783752,
            -0.5532932877540588
          ],
          [
            -0.3054543137550354,
            -0.22638952732086182,
            -0.17022502422332764,
            0.1208885982632637,
            0.04311387613415718,
            0.4643379747867584
          ],
          [
            0.057958196848630905,
            -0.040396373718976974,
            0.3418835997581482,
            0.4359281361103058,
            -0.06689763814210892,
            -0.03161175921559334
          ]
        ],
        "shape": [
          4,
          6
        ]
      },
      {
        "values": [
          -0.0681038424372673,
          0.16776929795742035,
          0.026730520650744438,
          -0.010841483250260353,
          0.042171817272901535,
          0.0781952291727066
        ],
        "shape": [
          6
        ]
      },
      {
        "values": [
          [
            -0.6544007658958435,
            0.697296142578125,
            0.14454343914985657
          ],
          [
            -0.4035235345363617,
            0.7383642792701721,
            0.16185620427131653
          ],
          [
            0.10033923387527466,
            0.3664153218269348,
            0.5936374068260193
          ],
          [
            -0.5256004929542542,
            0.2641809582710266,
            0.47970566153526306
          ],
          [
            -0.6090777516365051,
            -0.04122196137905121,
            0.11344239115715027
          ],
          [
            0.11731436848640442,
            0.023417526856064796,
            0.17258767783641815
          ]
        ],
        "shape": [
          6,
          3
        ]
      },
      {
        "values": [
          0.051756445318460464,
          -0.04862178489565849,
          -0.0033399653621017933
        ],
        "shape": [
          3
        ]
      }
    ]
  },
  {
    "class_name": "Sequential",
    "config": {
      "name": "sequential_1601",
      "layers": [
        {
          "class_name": "Dense",
          "config": {
            "units": 6,
            "activation": "relu",
            "use_bias": true
          }
        },
        {
          "class_name": "Dense",
          "config": {
            "units": 3,
            "activation": "softmax",
            "use_bias": true
          }
        }
      ]
    },
    "weights": [
      {
        "values": [
          [
            -0.4178433120250702,
            -0.08829493820667267,
            -0.8476738929748535,
            -0.4663063883781433,
            0.06890106946229935,
            0.4949651062488556
          ],
          [
            0.33683574199676514,
            -0.48402833938598633,
            0.21245113015174866,
            -0.8583145141601562,
            -0.7012434601783752,
            -0.5090955495834351
          ],
          [
            -0.3054543137550354,
            -0.22922857105731964,
            -0.2053583562374115,
            0.07951749861240387,
            0.06926435232162476,
            0.46633797883987427
          ],
          [
            0.057958196848630905,
            0.0004891064018011093,
            0.3418835997581482,
            0.36345019936561584,
            -0.06689763814210892,
            -0.03713433817028999
          ]
        ],
        "shape": [
          4,
          6
        ]
      },
      {
        "values": [
          -0.0060711512342095375,
          0.1391075700521469,
          0.026730520650744438,
          -0.010841483250260353,
          0.042171817272901535,
          0.09164616465568542
        ],
        "shape": [
          6
        ]
      },
      {
        "values": [
          [
            -0.6996111869812012,
            0.734054684638977,
            0.1881556659936905
          ],
          [
            -0.4078659117221832,
            0.7383642792701721,
            0.16185620427131653
          ],
          [
            0.08527258038520813,
            0.40124037861824036,
            0.537944495677948
          ],
          [
            -0.5281020402908325,
            0.2641809582710266,
            0.4743015170097351
          ],
          [
            -0.594760537147522,
            -0.045781541615724564,
            0.11344239115715027
          ],
          [
            0.13042475283145905,
            0.023417526856064796,
            0.2105473130941391
          ]
        ],
        "shape": [
          6,
          3
        ]
      },
      {
        "values": [
          0.051756445318460464,
          -0.019693586975336075,
          0.01558332797139883
        ],
        "shape": [
          3
        ]
      }
    ]
  },
  {
    "class_name": "Sequential",
    "config": {
      "name": "sequential_1602",
      "layers": [
        {
          "class_name": "Dense",
          "config": {
            "units": 6,
            "activation": "relu",
            "use_bias": true
          }
        },
        {
          "class_name": "Dense",
          "config": {
            "units": 3,
            "activation": "softmax",
            "use_bias": true
          }
        }
      ]
    },
    "weights": [
      {
        "values": [
          [
            -0.4178433120250702,
            -0.11224141716957092,
            -0.8413217663764954,
            -0.5249181985855103,
            0.0688369870185852,
            0.5604169368743896
          ],
          [
            0.3704020380973816,
            -0.48402833938598633,
            0.17910391092300415,
            -0.8977029323577881,
            -0.6967871189117432,
            -0.5532932877540588
          ],
          [
            -0.3250800371170044,
            -0.2270740568637848,
            -0.17022502422332764,
            0.1208885982632637,
            0.06926435232162476,
            0.4718019366264343
          ],
          [
            0.057958196848630905,
            0.0004891064018011093,
            0.3527335226535797,
            0.4225572645664215,
            -0.046082738786935806,
            -0.03161175921559334
          ]
        ],
        "shape": [
          4,
          6
        ]
      },
      {
        "values": [
          -0.05104939639568329,
          0.10230117291212082,
          0.026730520650744438,
          0.01660752110183239,
          0.051788076758384705,
          0.03835340589284897
        ],
        "shape": [
          6
        ]
      },
      {
        "values": [
          [
            -0.6544007658958435,
            0.6481442451477051,
            0.14454343914985657
          ],
          [
            -0.4078659117221832,
            0.7383642792701721,
            0.1372070610523224
          ],
          [
            0.08707799762487411,
            0.3664153218269348,
            0.5550240278244019
          ],
          [
            -0.5721050500869751,
            0.2641809582710266,
            0.4819727838039398
          ],
          [
            -0.6408731937408447,
            -0.08720006793737411,
            0.11344239115715027
          ],
          [
            0.11507552862167358,
            0.05709220841526985,
            0.2105473130941391
          ]
        ],
        "shape": [
          6,
          3
        ]
      },
      {
        "values": [
          0.04771703481674194,
          -0.04862178489565849,
          -0.0033399653621017933
        ],
        "shape": [
          3
        ]
      }
    ]
  },
  {
    "class_name": "Sequential",
    "config": {
      "name": "sequential_1593",
      "layers": [
        {
          "class_name": "Dense",
          "config": {
            "units": 6,
            "activation": "relu",
            "use_bias": true
          }
        },
        {
          "class_name": "Dense",
          "config": {
            "units": 3,
            "activation": "softmax",
            "use_bias": true
          }
        }
      ]
    },
    "weights": [
      {
        "values": [
          [
            -0.4178433120250702,
            -0.11224141716957092,
            -0.8413217663764954,
            -0.47994476556777954,
            0.0688369870185852,
            0.5604169368743896
          ],
          [
            0.3704020380973816,
            -0.48402833938598633,
            0.21804535388946533,
            -0.9412278532981873,
            -0.7012434601783752,
            -0.5532932877540588
          ],
          [
            -0.3054543137550354,
            -0.22638952732086182,
            -0.18540027737617493,
            0.1208885982632637,
            0.030714841559529305,
            0.46633797883987427
          ],
          [
            0.057958196848630905,
            0.0004891064018011093,
            0.3400176167488098,
            0.3918784260749817,
            -0.046082738786935806,
            -0.03161175921559334
          ]
        ],
        "shape": [
          4,
          6
        ]
      },
      {
        "values": [
          -0.03604884445667267,
          0.1391075700521469,
          0.026730520650744438,
          -0.0038570226170122623,
          0.051788076758384705,
          0.03835340589284897
        ],
        "shape": [
          6
        ]
      },
      {
        "values": [
          [
            -0.6544007658958435,
            0.6481442451477051,
            0.14454343914985657
          ],
          [
            -0.4078659117221832,
            0.7383642792701721,
            0.16185620427131653
          ],
          [
            0.1083749532699585,
            0.3835292160511017,
            0.5550240278244019
          ],
          [
            -0.5256004929542542,
            0.2641809582710266,
            0.4819727838039398
          ],
          [
            -0.6090777516365051,
            -0.08720006793737411,
            0.11344239115715027
          ],
          [
            0.11507552862167358,
            0.05709220841526985,
            0.2105473130941391
          ]
        ],
        "shape": [
          6,
          3
        ]
      },
      {
        "values": [
          0.04771703481674194,
          -0.04862178489565849,
          -0.0033399653621017933
        ],
        "shape": [
          3
        ]
      }
    ]
  },
  {
    "class_name": "Sequential",
    "config": {
      "name": "sequential_1596",
      "layers": [
        {
          "class_name": "Dense",
          "config": {
            "units": 6,
            "activation": "relu",
            "use_bias": true
          }
        },
        {
          "class_name": "Dense",
          "config": {
            "units": 3,
            "activation": "softmax",
            "use_bias": true
          }
        }
      ]
    },
    "weights": [
      {
        "values": [
          [
            -0.4507687985897064,
            -0.10870114713907242,
            -0.803905725479126,
            -0.4750394821166992,
            0.06890106946229935,
            0.5398639440536499
          ],
          [
            0.3570183217525482,
            -0.5247198343276978,
            0.1938006579875946,
            -0.8811085224151611,
            -0.7012434601783752,
            -0.5342662930488586
          ],
          [
            -0.3404980003833771,
            -0.22922857105731964,
            -0.17300094664096832,
            0.09668003022670746,
            0.06926435232162476,
            0.4589613676071167
          ],
          [
            0.03167672082781792,
            0.0014676125720143318,
            0.3418835997581482,
            0.3835495710372925,
            -0.051617857068777084,
            -0.02424815483391285
          ]
        ],
        "shape": [
          4,
          6
        ]
      },
      {
        "values": [
          -0.05104939639568329,
          0.1572653353214264,
          -0.03693918511271477,
          -0.010841483250260353,
          0.06899039447307587,
          0.0781952291727066
        ],
        "shape": [
          6
        ]
      },
      {
        "values": [
          [
            -0.6544007658958435,
            0.7396385669708252,
            0.14454343914985657
          ],
          [
            -0.4417453706264496,
            0.7595300674438477,
            0.1786755621433258
          ],
          [
            0.08527258038520813,
            0.3664153218269348,
            0.5201056599617004
          ],
          [
            -0.523944616317749,
            0.27788811922073364,
            0.4998539090156555
          ],
          [
            -0.6090777516365051,
            -0.06786949932575226,
            0.09074070304632187
          ],
          [
            0.11507552862167358,
            0.05709220841526985,
            0.2105473130941391
          ]
        ],
        "shape": [
          6,
          3
        ]
      },
      {
        "values": [
          0.051756445318460464,
          -0.019693586975336075,
          -0.0033399653621017933
        ],
        "shape": [
          3
        ]
      }
    ]
  }
]